{"w": [-0.002131134271621704, -0.05772995576262474, 0.005933098495006561, -0.0023013874888420105, 0.014716923236846924, 0.05984333157539368, -0.08638617396354675, 0.07499386370182037, 0.06127554178237915, -0.07677296549081802, -0.0198175311088562, 0.046537548303604126, 0.042383790016174316, 0.0860956460237503, -0.0005671828985214233, -0.012335248291492462, -0.014300979673862457, 0.024471178650856018, -0.0025392547249794006, -0.07315324246883392, 0.016977325081825256, -0.031787607818841934, -0.01789145916700363, -0.0569872222840786, -0.06088659167289734, 0.024217255413532257, -0.06113811582326889, -0.02576909214258194, -0.056479837745428085, 0.00497446209192276, -0.020955942571163177, -0.05386783555150032, 0.03775767982006073, -0.015226766467094421, -0.08333644270896912, 0.05368436872959137, 0.06869937479496002, 0.02892293781042099, 0.010962314903736115, -0.051934365183115005, -0.08732719719409943, 0.02524430677294731, 0.11949046701192856, -0.06826402992010117, 0.00254311366006732, -0.08760260790586472, 0.028426386415958405, 0.08240942656993866, 0.0025880932807922363, 0.07795251905918121, -0.022352613508701324, -0.025362905114889145, 0.05974680185317993, -0.006084047257900238, -0.07269395887851715, 0.015418007969856262, -0.053396616131067276, -0.05195287615060806, -0.06827419996261597, -0.020591380074620247, -0.011101686395704746, 0.011992715299129486, -0.061656709760427475, -0.09137377142906189, -0.01825292780995369, -0.008632749319076538, 0.0006533309351652861, 0.009231294505298138, 0.07733915001153946, 0.2508612871170044, 0.25670763850212097, 0.16612689197063446, 0.20058006048202515, 0.22737395763397217, 0.23949603736400604, 0.05175255984067917, 0.05972591042518616, -0.0656680166721344, 0.0580950528383255, 0.06669919192790985, 0.08338692784309387, 0.05280455946922302, -0.06879665702581406, 0.07236140966415405, 0.05403199791908264, 0.003439277410507202, 0.07068930566310883, -0.029909873381257057, 0.02471652813255787, 0.0168522447347641, -0.03901452198624611, -0.13848043978214264, 0.025892451405525208, 0.1877802163362503, 0.04945489391684532, 0.06268513202667236, 0.14481689035892487, 0.2565462291240692, 0.25521665811538696, 0.2216511070728302, 0.19754721224308014, 0.2679655849933624, 0.11060071736574173, 0.02799835614860058, 0.03481811285018921, -0.06348560750484467, 0.053733497858047485, -0.08068033307790756, -0.10865993052721024, -0.0621551051735878, 0.05523543059825897, 0.004249736666679382, -0.037381261587142944, -0.03253130242228508, -0.07435277104377747, -0.10251303762197495, 0.07716397941112518, 0.14013758301734924, 0.03885800391435623, 0.03057669848203659, 0.0851966142654419, 0.2016213983297348, 0.1966339498758316, 0.18546763062477112, 0.10714521259069443, 0.12404680997133255, 0.16661494970321655, 0.11198651790618896, 0.01293098833411932, 0.111440010368824, -0.14823247492313385, 0.09068986773490906, 0.24291841685771942, 0.19126586616039276, 0.12592405080795288, 0.16684092581272125, -0.014532923698425293, -0.05914504826068878, 0.04298973083496094, 0.02593570202589035, -0.02504267916083336, 0.020901955664157867, 0.053527623414993286, -0.001226402586326003, 0.052106596529483795, 0.13792070746421814, 0.06053924188017845, 0.02017068676650524, 0.17115309834480286, 0.17503026127815247, 0.12259870022535324, -0.024384068325161934, 0.08491569757461548, 0.1109764575958252, -0.03117206133902073, 0.015487485565245152, -0.0029697257559746504, -0.007272174581885338, -0.0643577054142952, 0.05698559060692787, 0.1275741010904312, 0.2395094335079193, 0.19257628917694092, 0.3013950288295746, 0.23568010330200195, -0.021423323079943657, -0.026738809421658516, -0.00872504711151123, -0.048482559621334076, 0.051855430006980896, -0.033403851091861725, 0.03533647581934929, 0.12033583223819733, 0.0016227923333644867, 0.09724405407905579, 0.10006492584943771, 0.08598826825618744, 0.0471612922847271, -0.04330131784081459, 0.06238393113017082, 0.049482136964797974, 0.07411806285381317, 0.004120830446481705, -0.04844808578491211, -0.14992302656173706, -0.1038345992565155, -0.09696625173091888, -0.05356374755501747, 0.12008093297481537, 0.1791805773973465, 0.12469258904457092, 0.1584368497133255, 0.15280431509017944, -0.030658889561891556, -0.07840999960899353, -0.094188392162323, -0.020350679755210876, 0.06872136890888214, 0.007977697998285294, 0.009269802831113338, 0.23348084092140198, 0.1569260060787201, -0.013321107253432274, 0.17017978429794312, -0.02223270572721958, -0.1105770468711853, -0.13637086749076843, -0.07189624756574631, 0.04491472616791725, 0.08561762422323227, 0.029530281201004982, 0.09455830603837967, -0.08400847017765045, -0.07147014886140823, -0.09643619507551193, -0.10892566293478012, -0.005989737808704376, 0.10011543333530426, 0.016045019030570984, 0.07473453134298325, -0.05204255133867264, -0.17188645899295807, 0.09883163124322891, 0.03146418184041977, 0.04544273018836975, 0.06848151981830597, -0.04798305407166481, -0.007705236319452524, 0.0810253769159317, 0.08932151645421982, -0.01977098546922207, 0.13637588918209076, -0.10709550231695175, -0.14383403956890106, -0.06465276330709457, -0.10759901255369186, 0.043312035501003265, 0.05864591524004936, 0.18790577352046967, 0.11528551578521729, 0.02126557007431984, -0.10868934541940689, -0.011097757145762444, -0.007922506891191006, -0.02588897943496704, -0.09456457197666168, -0.11573176085948944, -0.09021966904401779, -0.023182732984423637, -0.127473384141922, 0.008779175579547882, 0.014902912080287933, 0.01334855705499649, 0.08564260601997375, -0.05185025557875633, 0.06008166819810867, 0.05469293147325516, -0.03847581520676613, -0.19615745544433594, -0.06323090940713882, -0.08715664595365524, -0.031567975878715515, -0.006342690903693438, -0.09893684834241867, -0.07413440942764282, 0.036862291395664215, 0.10882245749235153, 0.20213785767555237, 0.16327816247940063, -0.044809937477111816, 0.029959555715322495, -0.045466434210538864, -0.15355533361434937, -0.20280171930789948, -0.14659622311592102, -0.08134598284959793, -0.021899741142988205, -0.018350861966609955, 0.09647417813539505, 0.055477067828178406, -0.0788954496383667, 0.025465380400419235, -0.05736817792057991, -0.06905950605869293, 0.14657007157802582, -0.07528732717037201, -0.09893670678138733, -0.20753557980060577, -0.04534333199262619, -0.13241448998451233, -0.08117186278104782, -0.08717942982912064, -0.173264279961586, 0.04255250096321106, 0.1847471296787262, 0.2419140487909317, 0.2614200711250305, 0.09198890626430511, -0.0030410317704081535, -0.05161222815513611, -0.20252998173236847, -0.20454297959804535, -0.1463959515094757, -0.1882924884557724, -0.15210667252540588, 0.04525226354598999, -0.0482763834297657, 0.03923500329256058, 0.04215534031391144, 0.005529608111828566, 0.02114715985953808, -0.032681334763765335, 0.049650952219963074, -0.2633979022502899, -0.14398887753486633, -0.17096547782421112, -0.14306244254112244, -0.13652458786964417, -0.14100758731365204, -0.12410324066877365, -0.15180499851703644, 0.08480436354875565, 0.252588152885437, 0.24621421098709106, 0.2865822911262512, 0.10743573307991028, -0.19989576935768127, -0.2694745361804962, -0.22648128867149353, -0.2044558972120285, -0.2875330150127411, -0.2220538705587387, -0.2124001830816269, 0.07172010093927383, -0.0008527974714525044, 0.04330218955874443, 0.0350116491317749, -0.040981490164995193, 0.06591350585222244, -0.04634912312030792, 0.07623641192913055, -0.24974991381168365, -0.16074348986148834, -0.18525196611881256, -0.12754635512828827, -0.1279461830854416, -0.14693069458007812, -0.23116493225097656, -0.2316417396068573, 0.2242617905139923, 0.39683085680007935, 0.32785695791244507, 0.22248317301273346, -0.07068999111652374, -0.3476006090641022, -0.22434930503368378, -0.2591906487941742, -0.3036477267742157, -0.13593211770057678, -0.12456812709569931, -0.17537063360214233, -0.05586984008550644, 0.007961945608258247, 0.07302621006965637, 0.06304151564836502, -0.001650479738600552, 0.00668507581576705, -0.0910586565732956, 0.03225599601864815, -0.16128228604793549, -0.16157804429531097, -0.1817493587732315, -0.2518542408943176, -0.27029964327812195, -0.20313303172588348, -0.3368651270866394, -0.1424848735332489, 0.2986973226070404, 0.37807926535606384, 0.3321416676044464, 0.2133316993713379, -0.1323034018278122, -0.4492180645465851, -0.34153270721435547, -0.14592786133289337, -0.24663729965686798, -0.25224733352661133, -0.14740341901779175, -0.19071732461452484, -0.03918716683983803, 0.007737697567790747, 0.013769127428531647, 0.04197140038013458, 0.04735064506530762, 0.061779558658599854, 0.019452780485153198, -0.04456055164337158, -0.15389233827590942, -0.22484759986400604, -0.3146990239620209, -0.19491934776306152, -0.16411732137203217, -0.33384403586387634, -0.516243577003479, 0.013438252732157707, 0.25343096256256104, 0.3831053376197815, 0.34401747584342957, 0.2560354769229889, -0.36875540018081665, -0.5018069744110107, -0.3555341958999634, -0.1854909211397171, -0.27158981561660767, -0.29426679015159607, -0.29708099365234375, -0.170745849609375, -0.12508368492126465, 0.033462248742580414, -0.05117397755384445, -0.024546988308429718, -0.048372067511081696, -0.0639590173959732, -0.03580515459179878, -0.1939593255519867, -0.1275082528591156, -0.2757891118526459, -0.1529177725315094, -0.24070869386196136, -0.22094744443893433, -0.40599721670150757, -0.23959800601005554, 0.12012623995542526, 0.4047187864780426, 0.3411763608455658, 0.36697185039520264, -0.01787215657532215, -0.373506098985672, -0.339987188577652, -0.30939891934394836, -0.2979623079299927, -0.1589018851518631, -0.1889425665140152, -0.2676050066947937, -0.212094247341156, -0.24534088373184204, 0.05443108454346657, 0.014367975294589996, -0.05056716874241829, 0.07230649143457413, 0.00606205640360713, -0.06214017793536186, -0.2215408980846405, -0.2055162787437439, -0.1271265596151352, -0.19118128716945648, -0.24921807646751404, -0.37096551060676575, -0.3413398861885071, -0.06866253167390823, 0.2065858244895935, 0.3594362735748291, 0.33941102027893066, 0.21909768879413605, -0.04185962677001953, -0.4397069811820984, -0.2393382042646408, -0.20999716222286224, -0.17761559784412384, -0.19870758056640625, -0.21129176020622253, -0.2280523180961609, -0.11809004843235016, -0.030059240758419037, 0.08853023499250412, -0.0025792685337364674, -0.08343230932950974, -0.04235692694783211, -0.015114504843950272, -0.011228971183300018, -0.1905864030122757, -0.2489790916442871, -0.17098291218280792, -0.19151932001113892, -0.26526379585266113, -0.2730558514595032, -0.25802379846572876, 0.19119088351726532, 0.23164133727550507, 0.2588125169277191, 0.28839024901390076, 0.2430247664451599, -0.08307372778654099, -0.39606887102127075, -0.2880662977695465, -0.21248073875904083, -0.15450173616409302, -0.2472010850906372, -0.2447660267353058, -0.2440880686044693, -0.031104905530810356, 0.10592015087604523, 0.06972024589776993, -0.03285388648509979, 0.022497592493891716, -0.03926515579223633, 0.04013742879033089, -0.1049308255314827, -0.1787796914577484, -0.159543976187706, -0.2611851394176483, -0.09782159328460693, -0.2618761658668518, -0.2939467430114746, -0.1428987979888916, 0.13674291968345642, 0.23109054565429688, 0.25802260637283325, 0.32467561960220337, 0.17568856477737427, -0.06443921476602554, -0.14815986156463623, -0.19303423166275024, -0.23675574362277985, -0.15253537893295288, -0.18739579617977142, -0.0714276060461998, -0.20432277023792267, 0.05938325077295303, 0.13217879831790924, -0.0016501776408404112, -0.044983867555856705, 0.07297923415899277, -0.11387873440980911, -0.07197801768779755, 0.0049881404265761375, -0.1729075312614441, -0.1770738810300827, -0.18859608471393585, -0.08713571727275848, -0.18889549374580383, -0.05580732598900795, 0.028336981311440468, 0.10608665645122528, 0.12957340478897095, 0.21683137118816376, 0.18152548372745514, 0.047584787011146545, -0.07961884140968323, -0.08100143820047379, -0.08275969326496124, -0.09586486965417862, -0.03716568276286125, -0.14839790761470795, 0.015133175998926163, 0.08055368810892105, 0.19781167805194855, 0.19644081592559814, 0.017880676314234734, 0.02113724686205387, 0.058070406317710876, -0.13453911244869232, -0.041440170258283615, -0.12304617464542389, -0.0414864607155323, -0.08179397881031036, -0.014772073365747929, -0.07784930616617203, -0.11845902353525162, 0.01218533143401146, -0.025372155010700226, 0.05902785807847977, 0.08189599215984344, 0.0438525453209877, 0.08765894919633865, 0.10227853804826736, 0.031392764300107956, 0.018145274370908737, 0.0573139488697052, 0.09384125471115112, 0.12348170578479767, 0.07253193110227585, -0.03451507166028023, 0.07612287998199463, 0.14254185557365417, 0.24869199097156525, 0.05465513467788696, 0.07481694221496582, 0.1196030005812645, 0.023741019889712334, -0.05150001123547554, -0.016033796593546867, 0.0037421153392642736, 0.011577671393752098, 0.08688987046480179, 0.09494078904390335, 0.0738205760717392, 0.04382370784878731, -0.13646996021270752, -0.004334887955337763, -0.11062299460172653, 0.06842911243438721, -0.026352079585194588, 0.08477340638637543, 0.08355512470006943, 0.07362716645002365, 0.11840640753507614, 0.11942564696073532, 0.1661301851272583, 0.20619599521160126, 0.04279358685016632, 0.06870052218437195, 0.23171700537204742, 0.11356171220541, -0.05494241788983345, -0.02882959507405758, 0.10976064205169678, 0.05520177632570267, 0.05454651266336441, 0.15186363458633423, 0.18579928576946259, 0.25794804096221924, 0.18943676352500916, 0.1711316555738449, 0.07031631469726562, 0.10050887614488602, -0.10925411432981491, -0.1710568219423294, -0.2546134293079376, -0.03385607525706291, 0.028361162170767784, -0.010947066359221935, 0.09637695550918579, 0.09148070961236954, 0.04633817821741104, 0.07079270482063293, 0.25622081756591797, 0.2440396398305893, 0.08137496560811996, 0.08197827637195587, 0.06919943541288376, 0.055790387094020844, -0.0677637830376625, 0.06891333311796188, 0.05472360551357269, 0.006158836185932159, 0.04359528422355652, 0.11433295905590057, 0.15942101180553436, 0.25846025347709656, 0.09110089391469955, 0.08302709460258484, 0.07988420128822327, 0.07189250737428665, -0.09318824112415314, -0.23036542534828186, -0.11299911886453629, -0.1222514808177948, -0.11154995858669281, -0.005330437328666449, 0.09061001986265182, 0.08487839996814728, 0.09470389783382416, 0.12978027760982513, 0.22322465479373932, 0.11575529724359512, -0.08051780611276627, -0.01361389085650444, 0.026028847321867943, -0.021196335554122925, 0.05862673372030258, 0.07375150918960571, 0.0016797110438346863, 0.06510916352272034, -0.052420053631067276, -0.03383438661694527, -0.01240243948996067, 0.13006547093391418, 0.13112856447696686, 0.07753706723451614, 0.15616834163665771, 0.12371400743722916, 0.14294502139091492, -0.021354030817747116, -0.054457951337099075, -0.019820701330900192, -0.06821579486131668, 0.14261208474636078, 0.12403029948472977, 0.19898594915866852, 0.20229938626289368, 0.11207106709480286, 0.11866804957389832, 0.10453176498413086, 0.023091595619916916, -0.0396546795964241, -0.001871977117843926, -0.04352424293756485, -0.054596345871686935, 0.06008462607860565, -0.07496628910303116, 0.002513200044631958, 0.06679703295230865, -0.061119019985198975, -0.013167940080165863, 6.090902388677932e-05, 0.04520954191684723, 0.0010870443657040596, 0.13468651473522186, 0.003302750177681446, 0.07092349976301193, -0.012312405742704868, 0.1709880530834198, 0.23601561784744263, 0.23980674147605896, 0.26191017031669617, 0.17795300483703613, -0.028493741527199745, -0.1415628045797348, 0.08577646315097809, 0.02587030827999115, 0.06544844806194305, -0.024029910564422607, 0.05546841025352478, 0.008469849824905396, 0.002943754196166992, 0.03786434233188629, 0.013915114104747772, 0.07572261989116669, 0.07649548351764679, -0.07081660628318787, -0.08696219325065613, -0.0254032202064991, -0.07345297187566757, 0.034458890557289124, 0.05245138704776764, -0.0743333250284195, 0.0500694215297699, 0.0035687072668224573, 0.06462561339139938, -0.03996620699763298, -0.07665438205003738, 0.11081268638372421, 0.06540744751691818, 0.10088569670915604, 0.08550196886062622, 0.06866094470024109, -0.009923137724399567, -0.08112677186727524, 0.032079942524433136, 0.03540889918804169, 0.022574439644813538, -0.009209290146827698, 0.004614003002643585, -0.011764287948608398, -0.06521911919116974, -0.08735693991184235, -0.00574079155921936, 0.017315395176410675, -0.06304307281970978, 0.023026756942272186, -0.01950708031654358, 0.06398655474185944, 0.03614339977502823, 0.05740457773208618, -0.0630510151386261, 0.013829678297042847, 0.032894447445869446, 0.05801677703857422, 0.006560705602169037, -0.07029669731855392, 0.03410688042640686, 0.036571718752384186, 0.0848974883556366, 0.0012750029563903809, 0.03437624126672745, -0.050783466547727585, 0.0768439769744873, 0.08067181706428528, -0.08671827614307404, -0.014293015003204346, -0.03698503598570824, -0.024983108043670654, 0.06544959545135498], "b": 0.38970157504081726}