{"w": [-0.003184087574481964, -0.0031497329473495483, -0.04783012345433235, -0.07070713490247726, -0.009382903575897217, -0.03977746516466141, 0.01924017071723938, 0.05948971211910248, -0.007388107478618622, -0.044644951820373535, -0.07001841068267822, 0.02557026594877243, -0.0752863734960556, -0.013475015759468079, 0.08657395839691162, 0.0708891898393631, 0.048261672258377075, 0.04757188260555267, 0.037965163588523865, 0.05030353367328644, 0.04015552997589111, 0.05777299404144287, 0.0006880611181259155, 0.050062716007232666, -0.05071280524134636, -0.040915898978710175, -0.04812329262495041, 0.042746976017951965, 0.0023190006613731384, 0.0688127875328064, 0.025344498455524445, 0.05084310472011566, 0.041238829493522644, -0.07512631267309189, -0.03826410695910454, -0.02072286605834961, 0.07793781161308289, 0.03602617233991623, 0.018131017684936523, -0.07611554861068726, 0.015258586965501308, -0.05662162974476814, 0.024951687082648277, 0.014443845488131046, -0.03490585461258888, -0.10846057534217834, 0.023037299513816833, 0.01079733669757843, 0.013423554599285126, -0.04209740087389946, 0.07094411551952362, -0.06857521086931229, 0.07722696661949158, 0.007798090577125549, 0.005767077207565308, 0.08570821583271027, -0.02711571753025055, -0.05960477143526077, 0.03649616241455078, -0.037321656942367554, 0.06043905019760132, -0.08546574413776398, -0.002378385281190276, -0.00868412759155035, -0.036073729395866394, -0.025308795273303986, 0.08827684074640274, 0.01353263296186924, 0.01904330588877201, 0.1889801174402237, 0.09750856459140778, 0.13721446692943573, 0.12633363902568817, 0.10995840281248093, 0.18698464334011078, 0.058759402483701706, -0.002625089604407549, -0.03516300022602081, -0.0417783223092556, 0.06973163783550262, 0.017619527876377106, -0.026990365236997604, -0.0510881245136261, 0.012614406645298004, 0.07254917919635773, -0.005089141428470612, -0.07547911256551743, 0.06326153129339218, -0.07747463881969452, -0.043616052716970444, 0.01338281761854887, -0.02638363093137741, -0.03637555614113808, 0.05472654849290848, 0.03573743999004364, 0.07552962005138397, 0.2118581384420395, 0.23387481272220612, 0.27174657583236694, 0.18105359375476837, 0.21896898746490479, 0.2545291483402252, 0.15507479012012482, 0.08374606817960739, -0.019927922636270523, 0.08513933420181274, -0.07560335844755173, 0.022074667736887932, -0.002621677238494158, -0.09689981490373611, -0.045318130403757095, 0.0023173317313194275, -0.06330480426549911, -0.056269146502017975, -0.03383490443229675, 0.04876256734132767, 0.1504734307527542, 0.04597500339150429, 0.027560360729694366, -0.06923718750476837, 0.13454954326152802, 0.15061965584754944, 0.14937233924865723, 0.045014530420303345, 0.11496724933385849, 0.15365107357501984, 0.15497861802577972, 0.08029206097126007, 0.09764270484447479, -0.0068744756281375885, -0.07062330842018127, 0.06849081069231033, 0.16669531166553497, 0.26225048303604126, 0.04785411059856415, 0.14343877136707306, -0.034088026732206345, -0.03858784958720207, -0.0350428968667984, -0.059358205646276474, -0.057733044028282166, 0.014751233160495758, 0.04104416072368622, 0.02415655180811882, 0.12678538262844086, 0.08519379049539566, 0.09756194055080414, -0.02533712238073349, 0.21484562754631042, 0.06495880335569382, 0.0970923900604248, 0.07547762989997864, 0.19019900262355804, 0.07605352252721786, -0.03655606880784035, -0.013358750380575657, 0.02585298754274845, -0.11688058078289032, -0.09074226021766663, 0.08353075385093689, 0.1666828989982605, 0.24972331523895264, 0.20514337718486786, 0.3070499002933502, 0.24046894907951355, -0.0033066975884139538, 0.04450136795639992, 0.029808014631271362, 0.03718864172697067, 0.04028964042663574, 0.025232676416635513, 0.005204292945563793, 0.20122657716274261, 0.0964694619178772, 0.06667661666870117, 0.1305193454027176, -0.0033618523739278316, -0.01095852255821228, -0.008459200151264668, -0.05157020315527916, 0.002205404918640852, 0.09626549482345581, -0.017193913459777832, 0.002258698223158717, -0.12472236901521683, -0.08917450904846191, -0.08745025843381882, -0.050079889595508575, 0.14651493728160858, 0.1987428069114685, 0.06535214185714722, 0.18015159666538239, 0.16461698710918427, 0.013372333720326424, -0.026971859857439995, -0.10286181420087814, 0.03610391914844513, 0.07559208571910858, -0.017842160537838936, 0.04171841964125633, 0.17822618782520294, 0.18708865344524384, 0.04706038162112236, 0.06315456330776215, 0.02956199273467064, -0.12911172211170197, -0.11724326014518738, -0.12270629405975342, -0.0027230812702327967, -0.007265094202011824, 0.03284292295575142, -0.0007087582489475608, 0.00018142658518627286, -0.1329498440027237, -0.15761087834835052, 0.01314985565841198, -0.02007516287267208, 0.022218981757760048, 0.075076624751091, -0.029614664614200592, -0.09818357974290848, -0.13253070414066315, 0.08864282071590424, -0.01732650026679039, 0.06554903090000153, -0.022860541939735413, -0.07576248794794083, 0.07131282240152359, 0.06571099907159805, 0.0449068658053875, 0.10864754021167755, 0.053608477115631104, -0.07640811055898666, -0.1644684076309204, -0.14529070258140564, 0.022781115025281906, -0.01855316199362278, 0.04371153190732002, 0.18722325563430786, 0.08189760893583298, 0.01675315946340561, -0.14461544156074524, -0.11525962501764297, -0.0967792272567749, -0.09259963035583496, -0.06819745898246765, -0.13647469878196716, -0.06814681738615036, -0.09490099549293518, -0.05038965120911598, -0.020019948482513428, 0.022368982434272766, -0.07517272979021072, 0.07137861102819443, -0.08257973939180374, 0.03810596093535423, 0.19070065021514893, -0.03798186406493187, -0.10566502809524536, 0.0034413503017276525, -0.046939678490161896, -0.11685753613710403, -0.03659987449645996, 0.015722906216979027, 0.04814034700393677, 0.1054171621799469, 0.19787363708019257, 0.20547308027744293, 0.12594060599803925, 0.02747073955833912, 0.052010469138622284, -0.07124108821153641, -0.147523432970047, -0.08963724970817566, -0.2020982950925827, -0.176957905292511, -0.017042163759469986, -0.04090196266770363, -0.020270897075533867, -0.017850294709205627, -0.04409715160727501, 0.0678856149315834, -0.016711758449673653, 0.012637946754693985, 0.1415819525718689, -0.009565996006131172, -0.17153187096118927, -0.07189805805683136, -0.0592191107571125, -0.14399924874305725, 0.016130123287439346, -0.13044588267803192, -0.07760217785835266, 0.04231071099638939, 0.20359349250793457, 0.2572934329509735, 0.2760496139526367, 0.10935848206281662, -0.11067573726177216, -0.07497204840183258, -0.22807228565216064, -0.15141260623931885, -0.24182908236980438, -0.11886776983737946, -0.15765231847763062, 0.07833131402730942, 0.04709899052977562, 0.041096609085798264, 0.08651193976402283, -0.010224617086350918, 0.10290911048650742, -0.002835880732163787, 0.022531231865286827, -0.20648741722106934, -0.18488112092018127, -0.23131835460662842, -0.18307310342788696, -0.10179954022169113, -0.17450378835201263, -0.11761529743671417, -0.25022798776626587, 0.05971752479672432, 0.18535582721233368, 0.3538128435611725, 0.3346271812915802, 0.0012232481967657804, -0.1515975147485733, -0.16011251509189606, -0.1537613570690155, -0.2149043083190918, -0.17474308609962463, -0.12316384166479111, -0.18897901475429535, 0.0367867536842823, 0.09069348871707916, 0.10509752482175827, 0.046572715044021606, -0.022811640053987503, -0.0751984566450119, -0.022077051922678947, -0.01448801252990961, -0.30761364102363586, -0.11655382066965103, -0.17366106808185577, -0.2434369921684265, -0.1578143984079361, -0.2501452565193176, -0.1752498894929886, -0.1880389004945755, 0.24762290716171265, 0.34400084614753723, 0.36968183517456055, 0.2914539873600006, -0.014855943620204926, -0.3221917152404785, -0.3309634327888489, -0.26223433017730713, -0.2651451826095581, -0.20191992819309235, -0.13114626705646515, -0.1513056755065918, -0.1299344152212143, -0.014139140024781227, 0.030600951984524727, -0.015380511991679668, 0.04308922961354256, -0.07230834662914276, 0.03747885674238205, -0.07460062950849533, -0.25063952803611755, -0.1445857733488083, -0.27813246846199036, -0.2623831331729889, -0.1988212913274765, -0.30745404958724976, -0.4546724259853363, -0.22742758691310883, 0.30005189776420593, 0.32588163018226624, 0.43131980299949646, 0.19486582279205322, -0.16864819824695587, -0.4727662205696106, -0.30912867188453674, -0.2435312718153, -0.2077791392803192, -0.23482754826545715, -0.3007175922393799, -0.26121506094932556, -0.0678592324256897, -0.0636255294084549, -0.02295992523431778, 0.07697884738445282, 0.013494834303855896, 0.062353409826755524, 0.08599215000867844, -0.07333391159772873, -0.12743891775608063, -0.2564595937728882, -0.20999093353748322, -0.21310491859912872, -0.1876239776611328, -0.43222203850746155, -0.4126123785972595, 0.04207384213805199, 0.3362257778644562, 0.37920671701431274, 0.3935486078262329, 0.1937052309513092, -0.3612092137336731, -0.5460847616195679, -0.27666568756103516, -0.29862329363822937, -0.21253103017807007, -0.2761840522289276, -0.2839304506778717, -0.1764620542526245, -0.26176294684410095, 0.007972849532961845, -0.035646893084049225, -0.04409252479672432, -0.0010157078504562378, 0.04169033467769623, 0.09065158665180206, -0.2672085165977478, -0.25231456756591797, -0.23594628274440765, -0.1544719785451889, -0.20208923518657684, -0.29368922114372253, -0.3699207007884979, -0.2799280285835266, 0.17228245735168457, 0.44876840710639954, 0.3353164792060852, 0.37377312779426575, 0.04336056858301163, -0.3751421272754669, -0.4826088547706604, -0.19565734267234802, -0.2503683269023895, -0.25040459632873535, -0.20265023410320282, -0.30766716599464417, -0.29699063301086426, -0.15003886818885803, -0.016309842467308044, -0.026588283479213715, 0.020381025969982147, -0.006365371868014336, 0.1087709590792656, -0.09614261239767075, -0.15647321939468384, -0.16182060539722443, -0.22980897128582, -0.30642277002334595, -0.1342393010854721, -0.2774434983730316, -0.43632596731185913, 0.01940193772315979, 0.179229274392128, 0.36828678846359253, 0.3243579566478729, 0.26564282178878784, -0.13596013188362122, -0.4809126853942871, -0.21798329055309296, -0.1590387374162674, -0.2969409227371216, -0.2849898338317871, -0.16009432077407837, -0.17638494074344635, -0.08296330273151398, -0.02117886394262314, 0.04664371535181999, 0.016409946605563164, -0.029717840254306793, 0.07869794964790344, 0.07089056819677353, -0.08930052816867828, -0.2195941060781479, -0.27401140332221985, -0.2288113385438919, -0.21074731647968292, -0.18195566534996033, -0.36754924058914185, -0.27362701296806335, 0.04516201466321945, 0.3245902955532074, 0.2962210476398468, 0.3535046875476837, 0.22248034179210663, -0.09903004765510559, -0.31928980350494385, -0.28603309392929077, -0.23872005939483643, -0.14478161931037903, -0.17183256149291992, -0.2735050916671753, -0.19437988102436066, 0.016220906749367714, 0.18792451918125153, 0.08630131185054779, 0.060816649347543716, -0.027682162821292877, 0.12789735198020935, -0.04311499372124672, 0.00300006614997983, -0.2641943395137787, -0.23246239125728607, -0.17238503694534302, -0.15816274285316467, -0.12168577313423157, -0.2868629992008209, -0.0428919680416584, 0.01482423022389412, 0.27835768461227417, 0.308879554271698, 0.19500435888767242, 0.21230272948741913, -0.08397474884986877, -0.17753121256828308, -0.1877836138010025, -0.20313020050525665, -0.19797970354557037, -0.09783189743757248, -0.21461565792560577, -0.10831604897975922, 0.05414511263370514, 0.19061008095741272, 0.024835342541337013, 0.06574125587940216, -0.01796426810324192, -0.07110726088285446, -0.1323712021112442, 0.014162968844175339, -0.2135356217622757, -0.24687990546226501, -0.08196868002414703, -0.15569843351840973, -0.11014718562364578, -0.1830630600452423, 0.04894600063562393, 0.11292240768671036, 0.22518330812454224, 0.14322125911712646, 0.16947819292545319, 0.1233375072479248, -0.06802939623594284, -0.16873452067375183, 0.0076094986870884895, -0.1136314645409584, -0.018404336646199226, -0.007479055318981409, -0.10079319030046463, 0.07161417603492737, 0.09798980504274368, 0.22399461269378662, 0.04742499068379402, 0.09075452387332916, 0.07538431882858276, -0.006542057730257511, -0.015001525171101093, -0.08014177531003952, -0.09996736794710159, -0.14041273295879364, -0.0231596902012825, -0.0951380804181099, 0.03213036060333252, -0.08783698081970215, -0.06231404095888138, 0.03970620781183243, 0.11679865419864655, 0.04603318125009537, 0.16561071574687958, 0.11203816533088684, 0.02701818384230137, 0.014397893100976944, 0.04329769313335419, 0.0643303319811821, 0.06272082030773163, -0.029650870710611343, 0.11669443547725677, 0.0746113583445549, 0.1996680498123169, 0.2900640070438385, -0.048473991453647614, 0.012981556355953217, 0.12952293455600739, 0.07857006788253784, -0.08275170624256134, -0.0036256974563002586, -0.014651216566562653, 0.06280302256345749, 0.06046223267912865, 0.13377197086811066, 0.08076777309179306, 0.05109882727265358, -0.054942935705184937, -0.08323971927165985, -0.0616544745862484, -0.05125153064727783, 0.1396956741809845, -0.003973268438130617, 0.10256429761648178, 0.048484690487384796, 0.1786767542362213, 0.18312902748584747, 0.17068326473236084, 0.16297996044158936, 0.07278449833393097, 0.15535017848014832, 0.17846894264221191, 0.19931825995445251, -0.10167781263589859, -0.108648382127285, 0.02741132490336895, 0.08741983026266098, 0.09365320950746536, 0.0381460078060627, 0.2364237904548645, 0.2688426673412323, 0.15045006573200226, 0.12691061198711395, 0.056065574288368225, 0.08162839710712433, -0.10317371040582657, -0.15571723878383636, -0.2183944433927536, -0.09403189271688461, -0.00957590714097023, 0.001564060803502798, 0.09528712183237076, 0.12540851533412933, 0.1263028234243393, 0.17537204921245575, 0.25809961557388306, 0.17701439559459686, 0.04383324086666107, 0.0012625037925317883, 0.060248423367738724, 0.10440166294574738, 0.011069388128817081, -0.09507733583450317, -0.02961914613842964, 0.01224873960018158, -0.0429486483335495, 0.08029696345329285, 0.054545916616916656, 0.2714921534061432, 0.12318389117717743, 0.11282364279031754, 0.1046648919582367, 0.11270706355571747, -0.1241021603345871, -0.24530158936977386, -0.21932128071784973, -0.05837392807006836, -0.09921077638864517, 0.00941955205053091, 0.008937121368944645, 0.11719310283660889, 0.14293569326400757, 0.1196325495839119, 0.2552640438079834, 0.09063693881034851, -0.000398755248170346, -0.14663125574588776, 0.04919050633907318, 0.06165670230984688, 0.044625069946050644, -0.016178734600543976, 0.017724543809890747, -0.05472087487578392, 0.0515064001083374, 0.1020481213927269, 0.0793609619140625, 0.03660736232995987, 0.11289887875318527, 0.09227978438138962, 0.047029729932546616, 0.09348256140947342, 0.11991457641124725, 0.032131243497133255, -0.11334002017974854, -0.12010584771633148, 0.02583456225693226, 0.0271403007209301, 0.10374151170253754, 0.18485195934772491, 0.06726820766925812, 0.11597336083650589, 0.05832936614751816, 0.12154458463191986, 0.12945698201656342, 0.03909814730286598, -0.09149689972400665, 0.03600841388106346, 0.030211204662919044, -0.030056055635213852, -0.027715254575014114, -0.0007592663168907166, -0.042903102934360504, -0.07080203294754028, 0.00896608829498291, -0.028210127726197243, 0.01963680610060692, 0.15889713168144226, 0.052837073802948, 0.19811901450157166, 0.01841769553720951, -0.0677059218287468, 0.28571921586990356, 0.25666317343711853, 0.2761220335960388, 0.33445048332214355, 0.26511362195014954, -0.06161482632160187, -0.08984449505805969, -0.04660816490650177, 0.05833938717842102, 0.06289505958557129, 0.0012615025043487549, 0.022653914988040924, -0.02613334357738495, 0.03776766359806061, 0.04969674348831177, 0.01726672798395157, -0.03559780493378639, 0.05166812241077423, -0.06912662088871002, -0.04691749066114426, -0.019789554178714752, -0.029076743870973587, -0.03609155863523483, -0.08169898390769958, 0.04607585072517395, -0.06648345291614532, 0.08836747705936432, 0.01719323731958866, 0.032737091183662415, 0.043652668595314026, 0.15957047045230865, 0.17621105909347534, 0.11791953444480896, 0.050174176692962646, -0.035271890461444855, -0.005011938512325287, -0.04746270552277565, -0.0739108994603157, -0.04311016947031021, 0.022664420306682587, 0.055003851652145386, 0.050809651613235474, 0.001451238989830017, 0.026962533593177795, -0.07384098321199417, 0.016854219138622284, 0.0045728981494903564, 0.04050356149673462, -0.04429110512137413, 0.045651137828826904, -0.014078430831432343, -0.0044982582330703735, 0.0357603058218956, -0.04849875718355179, -0.04347031190991402, 0.022777289152145386, -0.03785773366689682, -0.08213328570127487, -0.05185684934258461, 0.08073936402797699, -0.033825963735580444, 0.03226155787706375, -0.008022062480449677, 0.0384514182806015, -0.01874077320098877, 0.01354469358921051, -0.0019991248846054077, -0.020610913634300232, 0.05154222249984741, 0.039063453674316406, -0.01485363394021988, 0.07237841188907623], "b": [0.41643616557121277]}